Language model created by QuickLM on Fri Sep  3 12:21:04 EDT 2010
Copyright (c) 1996-2010 Carnegie Mellon University and Alexander I. Rudnicky

The model is in standard ARPA format, designed by Doug Paul while he was at MITRE.

The code that was used to produce this language model is available in Open Source.
Please visit http://www.speech.cs.cmu.edu/tools/ for more information

The (fixed) discount mass is 0.5. The backoffs are computed using the ratio method.
This model based on a corpus of 12 sentences and 14 words

\data\
ngram 1=14
ngram 2=25
ngram 3=18

\1-grams:
-0.8553 </s> -0.3010
-0.8553 <s> -0.2239
-1.9345 BATHROOM -0.2358
-1.6335 CLOSE -0.2642
-1.3324 DOOR -0.2358
-1.9345 ELEVATOR -0.2358
-1.9345 GO -0.2358
-1.9345 HALLWAY -0.2358
-1.9345 LAB -0.2358
-1.9345 MACHINE -0.2358
-1.6335 OPEN -0.2642
-1.4574 THE -0.2116
-1.9345 TO -0.2358
-1.9345 VENDING -0.2960

\2-grams:
-1.3802 <s> BATHROOM 0.0000
-1.0792 <s> CLOSE 0.0000
-1.3802 <s> ELEVATOR 0.0000
-1.3802 <s> GO 0.0000
-1.3802 <s> HALLWAY 0.0000
-1.3802 <s> LAB 0.0000
-1.0792 <s> OPEN 0.0000
-1.3802 <s> THE -0.2218
-1.3802 <s> TO 0.0000
-1.3802 <s> VENDING 0.0000
-0.3010 BATHROOM </s> -0.3010
-0.6021 CLOSE DOOR 0.0000
-0.6021 CLOSE THE -0.1249
-0.3010 DOOR </s> -0.3010
-0.3010 ELEVATOR </s> -0.3010
-0.3010 GO </s> -0.3010
-0.3010 HALLWAY </s> -0.3010
-0.3010 LAB </s> -0.3010
-0.3010 MACHINE </s> -0.3010
-0.6021 OPEN DOOR 0.0000
-0.6021 OPEN THE -0.1249
-0.7782 THE </s> -0.3010
-0.4771 THE DOOR 0.0000
-0.3010 TO </s> -0.3010
-0.3010 VENDING MACHINE 0.0000

\3-grams:
-0.3010 <s> BATHROOM </s>
-0.6021 <s> CLOSE DOOR
-0.6021 <s> CLOSE THE
-0.3010 <s> ELEVATOR </s>
-0.3010 <s> GO </s>
-0.3010 <s> HALLWAY </s>
-0.3010 <s> LAB </s>
-0.6021 <s> OPEN DOOR
-0.6021 <s> OPEN THE
-0.3010 <s> THE </s>
-0.3010 <s> TO </s>
-0.3010 <s> VENDING MACHINE
-0.3010 CLOSE DOOR </s>
-0.3010 CLOSE THE DOOR
-0.3010 OPEN DOOR </s>
-0.3010 OPEN THE DOOR
-0.3010 THE DOOR </s>
-0.3010 VENDING MACHINE </s>

\end\
