Language model created by QuickLM on Thu Aug 19 21:15:34 EDT 2010
Copyright (c) 1996-2010 Carnegie Mellon University and Alexander I. Rudnicky

The model is in standard ARPA format, designed by Doug Paul while he was at MITRE.

The code that was used to produce this language model is available in Open Source.
Please visit http://www.speech.cs.cmu.edu/tools/ for more information

The (fixed) discount mass is 0.5. The backoffs are computed using the ratio method.
This model based on a corpus of 6 sentences and 8 words

\data\
ngram 1=8
ngram 2=12
ngram 3=6

\1-grams:
-0.7782 </s> -0.3010
-0.7782 <s> -0.2218
-1.5563 FASTER -0.2218
-1.5563 LEFT -0.2218
-1.5563 RIGHT -0.2218
-1.5563 SLOWER -0.2218
-1.5563 STOP -0.2218
-1.5563 STRAIGHT -0.2218

\2-grams:
-1.0792 <s> FASTER 0.0000
-1.0792 <s> LEFT 0.0000
-1.0792 <s> RIGHT 0.0000
-1.0792 <s> SLOWER 0.0000
-1.0792 <s> STOP 0.0000
-1.0792 <s> STRAIGHT 0.0000
-0.3010 FASTER </s> -0.3010
-0.3010 LEFT </s> -0.3010
-0.3010 RIGHT </s> -0.3010
-0.3010 SLOWER </s> -0.3010
-0.3010 STOP </s> -0.3010
-0.3010 STRAIGHT </s> -0.3010

\3-grams:
-0.3010 <s> FASTER </s>
-0.3010 <s> LEFT </s>
-0.3010 <s> RIGHT </s>
-0.3010 <s> SLOWER </s>
-0.3010 <s> STOP </s>
-0.3010 <s> STRAIGHT </s>

\end\
