Language model created by QuickLM on Thu Aug 19 22:37:01 EDT 2010
Copyright (c) 1996-2010 Carnegie Mellon University and Alexander I. Rudnicky

The model is in standard ARPA format, designed by Doug Paul while he was at MITRE.

The code that was used to produce this language model is available in Open Source.
Please visit http://www.speech.cs.cmu.edu/tools/ for more information

The (fixed) discount mass is 0.5. The backoffs are computed using the ratio method.
This model based on a corpus of 6 sentences and 10 words

\data\
ngram 1=10
ngram 2=14
ngram 3=8

\1-grams:
-0.8239 </s> -0.3010
-0.8239 <s> -0.2304
-1.6021 DOWN -0.2304
-1.6021 FORWARD -0.2304
-1.6021 LEFT -0.2304
-1.6021 RIGHT -0.2304
-1.6021 SLOW -0.2900
-1.6021 SPEED -0.2900
-1.6021 STOP -0.2304
-1.6021 UP -0.2304

\2-grams:
-1.0792 <s> FORWARD 0.0000
-1.0792 <s> LEFT 0.0000
-1.0792 <s> RIGHT 0.0000
-1.0792 <s> SLOW 0.0000
-1.0792 <s> SPEED 0.0000
-1.0792 <s> STOP 0.0000
-0.3010 DOWN </s> -0.3010
-0.3010 FORWARD </s> -0.3010
-0.3010 LEFT </s> -0.3010
-0.3010 RIGHT </s> -0.3010
-0.3010 SLOW DOWN 0.0000
-0.3010 SPEED UP 0.0000
-0.3010 STOP </s> -0.3010
-0.3010 UP </s> -0.3010

\3-grams:
-0.3010 <s> FORWARD </s>
-0.3010 <s> LEFT </s>
-0.3010 <s> RIGHT </s>
-0.3010 <s> SLOW DOWN
-0.3010 <s> SPEED UP
-0.3010 <s> STOP </s>
-0.3010 SLOW DOWN </s>
-0.3010 SPEED UP </s>

\end\
