Language model created by QuickLM on Fri Sep  3 12:02:53 EDT 2010
Copyright (c) 1996-2010 Carnegie Mellon University and Alexander I. Rudnicky

The model is in standard ARPA format, designed by Doug Paul while he was at MITRE.

The code that was used to produce this language model is available in Open Source.
Please visit http://www.speech.cs.cmu.edu/tools/ for more information

The (fixed) discount mass is 0.5. The backoffs are computed using the ratio method.
This model based on a corpus of 8 sentences and 15 words

\data\
ngram 1=15
ngram 2=22
ngram 3=19

\1-grams:
-1.0414 </s> -0.3010
-1.0414 <s> -0.2596
-1.9445 BATHROOM -0.2596
-1.9445 CLOSE -0.2650
-1.6435 DOOR -0.2596
-1.9445 ELEVATOR -0.2596
-1.2455 GO -0.2756
-1.9445 HALLWAY -0.2596
-1.9445 LAB -0.2596
-1.9445 MACHINE -0.2596
-1.9445 OPEN -0.2650
-1.9445 STOP -0.2596
-1.0994 THE -0.2650
-1.2455 TO -0.2650
-1.9445 VENDING -0.2961

\2-grams:
-1.2041 <s> CLOSE 0.0000
-0.5051 <s> GO 0.0000
-1.2041 <s> OPEN 0.0000
-1.2041 <s> STOP 0.0000
-0.3010 BATHROOM </s> -0.3010
-0.3010 CLOSE THE -0.2341
-0.3010 DOOR </s> -0.3010
-0.3010 ELEVATOR </s> -0.3010
-0.3010 GO TO 0.0000
-0.3010 HALLWAY </s> -0.3010
-0.3010 LAB </s> -0.3010
-0.3010 MACHINE </s> -0.3010
-0.3010 OPEN THE -0.2341
-0.3010 STOP </s> -0.3010
-1.1461 THE BATHROOM 0.0000
-0.8451 THE DOOR 0.0000
-1.1461 THE ELEVATOR 0.0000
-1.1461 THE HALLWAY 0.0000
-1.1461 THE LAB 0.0000
-1.1461 THE VENDING 0.0000
-0.3010 TO THE -0.1091
-0.3010 VENDING MACHINE 0.0000

\3-grams:
-0.3010 <s> CLOSE THE
-0.3010 <s> GO TO
-0.3010 <s> OPEN THE
-0.3010 <s> STOP </s>
-0.3010 CLOSE THE DOOR
-0.3010 GO TO THE
-0.3010 OPEN THE DOOR
-0.3010 THE BATHROOM </s>
-0.3010 THE DOOR </s>
-0.3010 THE ELEVATOR </s>
-0.3010 THE HALLWAY </s>
-0.3010 THE LAB </s>
-0.3010 THE VENDING MACHINE
-1.0000 TO THE BATHROOM
-1.0000 TO THE ELEVATOR
-1.0000 TO THE HALLWAY
-1.0000 TO THE LAB
-1.0000 TO THE VENDING
-0.3010 VENDING MACHINE </s>

\end\
