Language model created by QuickLM on Mon Aug  9 22:07:05 EDT 2010
Copyright (c) 1996-2010 Carnegie Mellon University and Alexander I. Rudnicky

The model is in standard ARPA format, designed by Doug Paul while he was at MITRE.

The code that was used to produce this language model is available in Open Source.
Please visit http://www.speech.cs.cmu.edu/tools/ for more information

The (fixed) discount mass is 0.5. The backoffs are computed using the ratio method.
This model based on a corpus of 14 sentences and 17 words

\data\
ngram 1=17
ngram 2=29
ngram 3=15

\1-grams:
-0.7884 </s> -0.3010
-0.7884 <s> -0.2239
-1.9345 BATHROOM -0.2239
-1.9345 CLOSE -0.2239
-1.9345 DOOR -0.2239
-1.9345 ELEVATOR -0.2239
-1.9345 ENTER -0.2239
-1.9345 GO -0.2239
-1.9345 HALLWAY -0.2239
-1.9345 LAB -0.2239
-1.9345 MACHINE -0.2239
-1.9345 MY -0.2239
-1.9345 OPEN -0.2239
-1.9345 STOP -0.2239
-1.9345 THE -0.2239
-1.9345 TO -0.2239
-1.9345 VENDING -0.2960

\2-grams:
-1.4472 <s> BATHROOM 0.0000
-1.4472 <s> CLOSE 0.0000
-1.4472 <s> DOOR 0.0000
-1.4472 <s> ELEVATOR 0.0000
-1.4472 <s> ENTER 0.0000
-1.4472 <s> GO 0.0000
-1.4472 <s> HALLWAY 0.0000
-1.4472 <s> LAB 0.0000
-1.4472 <s> MY 0.0000
-1.4472 <s> OPEN 0.0000
-1.4472 <s> STOP 0.0000
-1.4472 <s> THE 0.0000
-1.4472 <s> TO 0.0000
-1.4472 <s> VENDING 0.0000
-0.3010 BATHROOM </s> -0.3010
-0.3010 CLOSE </s> -0.3010
-0.3010 DOOR </s> -0.3010
-0.3010 ELEVATOR </s> -0.3010
-0.3010 ENTER </s> -0.3010
-0.3010 GO </s> -0.3010
-0.3010 HALLWAY </s> -0.3010
-0.3010 LAB </s> -0.3010
-0.3010 MACHINE </s> -0.3010
-0.3010 MY </s> -0.3010
-0.3010 OPEN </s> -0.3010
-0.3010 STOP </s> -0.3010
-0.3010 THE </s> -0.3010
-0.3010 TO </s> -0.3010
-0.3010 VENDING MACHINE 0.0000

\3-grams:
-0.3010 <s> BATHROOM </s>
-0.3010 <s> CLOSE </s>
-0.3010 <s> DOOR </s>
-0.3010 <s> ELEVATOR </s>
-0.3010 <s> ENTER </s>
-0.3010 <s> GO </s>
-0.3010 <s> HALLWAY </s>
-0.3010 <s> LAB </s>
-0.3010 <s> MY </s>
-0.3010 <s> OPEN </s>
-0.3010 <s> STOP </s>
-0.3010 <s> THE </s>
-0.3010 <s> TO </s>
-0.3010 <s> VENDING MACHINE
-0.3010 VENDING MACHINE </s>

\end\
